<?xml version="1.0"?>
<opencv_storage>
<!-- Created using Computer Vision System Toolbox(tm) for MATLAB(R) -->
<!-- Version 8.2.0.701 (R2013b) -->
<!-- Compatible with OpenCV 2.4 -->
<cascade>
  <stageType>BOOST</stageType>
  <featureType>HOG</featureType>
  <height>32</height>
  <width>80</width>
  <stageParams>
    <boostType>GAB</boostType>
    <minHitRate>9.9500000476837158e-01</minHitRate>
    <maxFalseAlarm>5.0000000000000000e-01</maxFalseAlarm>
    <weightTrimRate>9.4999999999999996e-01</weightTrimRate>
    <maxDepth>1</maxDepth>
    <maxWeakCount>100</maxWeakCount></stageParams>
  <featureParams>
    <maxCatCount>0</maxCatCount>
    <featSize>36</featSize></featureParams>
  <stageNum>2</stageNum>
  <stages>
    <!-- stage 0 -->
    <_>
      <maxWeakCount>5</maxWeakCount>
      <stageThreshold>-8.9922189712524414e-01</stageThreshold>
      <weakClassifiers>
        <_>
          <internalNodes>
            0 -1 0 1.0041151940822601e-01</internalNodes>
          <leafValues>
            -7.6659959554672241e-01 7.6190477609634399e-01</leafValues></_>
        <_>
          <internalNodes>
            0 -1 6 5.8135874569416046e-03</internalNodes>
          <leafValues>
            7.4593585729598999e-01 -5.9437751770019531e-01</leafValues></_>
        <_>
          <internalNodes>
            0 -1 4 1.6753118485212326e-02</internalNodes>
          <leafValues>
            -8.5305315256118774e-01 5.2770829200744629e-01</leafValues></_>
        <_>
          <internalNodes>
            0 -1 2 4.4299319386482239e-02</internalNodes>
          <leafValues>
            -5.9984922409057617e-01 7.7365142107009888e-01</leafValues></_>
        <_>
          <internalNodes>
            0 -1 3 4.3591625988483429e-02</internalNodes>
          <leafValues>
            -7.8890872001647949e-01 5.3389608860015869e-01</leafValues></_></weakClassifiers></_>
    <!-- stage 1 -->
    <_>
      <maxWeakCount>3</maxWeakCount>
      <stageThreshold>-6.2767004966735840e-01</stageThreshold>
      <weakClassifiers>
        <_>
          <internalNodes>
            0 -1 7 1.1123193427920341e-02</internalNodes>
          <leafValues>
            8.5171103477478027e-01 -6.8085104227066040e-01</leafValues></_>
        <_>
          <internalNodes>
            0 -1 5 1.6467815265059471e-02</internalNodes>
          <leafValues>
            -7.0570117235183716e-01 7.4313575029373169e-01</leafValues></_>
        <_>
          <internalNodes>
            0 -1 1 4.3760515749454498e-02</internalNodes>
          <leafValues>
            -7.7367991209030151e-01 5.7502728700637817e-01</leafValues></_></weakClassifiers></_></stages>
  <features>
    <_>
      <rect>
        32 16 8 8 22</rect></_>
    <_>
      <rect>
        64 16 8 8 21</rect></_>
    <_>
      <rect>
        4 0 16 8 29</rect></_>
    <_>
      <rect>
        12 4 16 8 21</rect></_>
    <_>
      <rect>
        12 12 16 8 24</rect></_>
    <_>
      <rect>
        36 12 16 8 28</rect></_>
    <_>
      <rect>
        12 0 16 16 28</rect></_>
    <_>
      <rect>
        32 0 16 16 24</rect></_></features></cascade>
</opencv_storage>
